svm_type c_svc
kernel_type rbf
gamma 0.5
nr_class 4
total_sv 1043
rho -1.3444 -1 -1 -1.47255 -1.53594 -0.202718 
label 2 0 3 1 
nr_sv 529 380 65 69 
SV 
0.1574087972428646 0 0 1:3 2:3 3:0 4:1 5:0 
0.7462127047781392 0 0 1:3 2:3 3:0 4:1 5:0 
0.008887889464846043 0 0 1:3 2:3 3:0 4:1 5:0 
0.1768689045555712 0 0 1:3 2:3 3:1 4:2 5:0 
0.1395579207878303 0 0 1:3 2:3 3:1 4:2 5:0 
0.007620502688025945 0 0 1:3 2:3 3:1 4:2 5:0 
0.4369834292982158 0 0 1:3 2:3 3:2 4:2 5:0 
0.5134614636922018 0 0 1:3 2:3 3:3 4:1 5:0 
0.8865346589008573 0 0 1:3 2:3 3:3 4:1 5:0 
0.08863481949581213 0 0 1:3 2:3 3:3 4:2 5:0 
1.293843991166324 0 0 1:3 2:3 3:3 4:2 5:0 
0.02317436912444842 0 0 1:3 2:3 3:3 4:2 5:0 
0.05410304492025961 0 0 1:3 2:0 3:0 4:1 5:0 
3.512004495898184 0 0 1:3 2:0 3:0 4:1 5:0 
0.007397625913082463 0 0 1:3 2:0 3:0 4:1 5:0 
0 2.939987663042043e-14 0 1:3 2:0 3:0 4:2 5:2 
0.03758247484887742 0 0 1:3 2:0 3:0 4:2 5:0 
1.172860101055686 0 0 1:3 2:0 3:0 4:2 5:0 
0.2358511687963979 0 0 1:3 2:0 3:1 4:2 5:1 
1.73019457345672 0 0 1:3 2:0 3:1 4:2 5:0 
1.028461143303338 0 0 1:3 2:0 3:1 4:2 5:0 
1.005526383516724 0 0 1:3 2:0 3:1 4:2 5:0 
1.558136718986467 0 0 1:3 2:0 3:2 4:1 5:0 
0.001519479726416419 0 0 1:3 2:0 3:2 4:1 5:0 
0.8609483316301786 0 0 1:3 2:0 3:2 4:2 5:1 
2.822526859329588 0 0 1:3 2:0 3:2 4:2 5:1 
0.1015131573113406 0 0 1:3 2:0 3:2 4:2 5:1 
0 0 8.894259020686412e-05 1:3 2:0 3:2 4:2 5:0 
2.236904917779446 0 0 1:3 2:0 3:3 4:1 5:1 
0.0007074328020236744 0 0 1:3 2:0 3:3 4:1 5:1 
0.1493048274102622 0 0 1:3 2:0 3:3 4:1 5:0 
0.8995559553361018 0 0 1:3 2:0 3:3 4:1 5:0 
0.7530063992347741 0 0 1:3 2:0 3:3 4:1 5:0 
1.515611344850647 0 0 1:3 2:0 3:3 4:2 5:0 
0.1662565824818235 0 0 1:3 2:0 3:3 4:2 5:0 
0.3028565162941066 0 0 1:3 2:2 3:0 4:0 5:0 
100 0 0 1:3 2:2 3:0 4:1 5:2 
1.725350132556748 0 0 1:3 2:2 3:0 4:1 5:2 
95.0030210866552 0 0 1:3 2:2 3:0 4:1 5:1 
100 0 0 1:3 2:2 3:0 4:1 5:0 
100 0 0 1:3 2:2 3:0 4:2 5:1 
9.667084543137616 0 0 1:3 2:2 3:0 4:2 5:1 
100 0 0 1:3 2:2 3:0 4:2 5:0 
0.03624220085357634 0 0 1:3 2:2 3:1 4:0 5:0 
0.05601595364925967 0 0 1:3 2:2 3:1 4:0 5:0 
0.008179977671334441 0 0 1:3 2:2 3:1 4:0 5:0 
90.87354240084676 0 0 1:3 2:2 3:1 4:1 5:2 
20.02045063057727 0 0 1:3 2:2 3:1 4:1 5:1 
100 0 0 1:3 2:2 3:1 4:1 5:1 
100 0 0 1:3 2:2 3:1 4:1 5:0 
6.092813825842934 0 0 1:3 2:2 3:1 4:2 5:2 
100 0 0 1:3 2:2 3:1 4:2 5:2 
100 0 0 1:3 2:2 3:1 4:2 5:1 
100 0 0 1:3 2:2 3:1 4:2 5:0 
6.440421511863724 0 0 1:3 2:2 3:2 4:1 5:2 
99.4946344895539 0 0 1:3 2:2 3:2 4:1 5:2 
100 0 0 1:3 2:2 3:2 4:1 5:1 
100 0 0 1:3 2:2 3:2 4:1 5:0 
99.47150865826619 0 0 1:3 2:2 3:2 4:2 5:2 
0.2946380758517476 0 0 1:3 2:2 3:2 4:2 5:2 
100 0 0 1:3 2:2 3:2 4:2 5:1 
100 0 0 1:3 2:2 3:2 4:2 5:0 
0.00240631793626989 0 0 1:3 2:2 3:3 4:0 5:0 
0.4349950771040528 0 0 1:3 2:2 3:3 4:0 5:0 
0.00196391183941294 0 0 1:3 2:2 3:3 4:0 5:0 
99.14174860477893 0 0 1:3 2:2 3:3 4:1 5:2 
1.707938692556263 0 0 1:3 2:2 3:3 4:1 5:2 
100 0 0 1:3 2:2 3:3 4:1 5:1 
100 0 0 1:3 2:2 3:3 4:1 5:0 
100 0 0 1:3 2:2 3:3 4:2 5:2 
2.78429614451006 0 0 1:3 2:2 3:3 4:2 5:2 
100 0 0 1:3 2:2 3:3 4:2 5:1 
100 0 0 1:3 2:2 3:3 4:2 5:0 
0.3701603056539876 0 0 1:3 2:1 3:0 4:0 5:0 
0.09151098958415904 0 0 1:3 2:1 3:0 4:0 5:0 
0.1814238415882989 0 0 1:3 2:1 3:0 4:0 5:0 
99.27741632215169 0 0 1:3 2:1 3:0 4:1 5:2 
98.22218268819594 0 0 1:3 2:1 3:0 4:1 5:1 
0.7932458228861742 0 0 1:3 2:1 3:0 4:1 5:1 
100 0 0 1:3 2:1 3:0 4:1 5:0 
98.68464578248992 0 0 1:3 2:1 3:0 4:2 5:1 
2.66780963054645 0 0 1:3 2:1 3:0 4:2 5:1 
100 0 0 1:3 2:1 3:0 4:2 5:0 
0.05844357845600254 0 0 1:3 2:1 3:1 4:0 5:0 
0.06273531806720908 0 0 1:3 2:1 3:1 4:0 5:0 
0.3789239719041158 0 0 1:3 2:1 3:1 4:1 5:2 
98.33244314872474 0 0 1:3 2:1 3:1 4:1 5:2 
6.976026380265872 0 0 1:3 2:1 3:1 4:1 5:1 
97.37117065584249 0 0 1:3 2:1 3:1 4:1 5:1 
100 0 0 1:3 2:1 3:1 4:1 5:0 
98.4249620861964 0 0 1:3 2:1 3:1 4:2 5:2 
2.706526557317594 0 0 1:3 2:1 3:1 4:2 5:2 
100 0 0 1:3 2:1 3:1 4:2 5:1 
100 0 0 1:3 2:1 3:1 4:2 5:0 
0.03905188717264605 0 0 1:3 2:1 3:2 4:0 5:1 
0.01609334177581922 0 0 1:3 2:1 3:2 4:0 5:1 
0.01594621978544183 0 0 1:3 2:1 3:2 4:0 5:1 
0.1045790823671494 0 0 1:3 2:1 3:2 4:0 5:0 
0.003853036660477525 0 0 1:3 2:1 3:2 4:0 5:0 
0.003153550068768325 0 0 1:3 2:1 3:2 4:0 5:0 
1.977967851883231 0 0 1:3 2:1 3:2 4:1 5:2 
99.76481591201956 0 0 1:3 2:1 3:2 4:1 5:2 
100 0 0 1:3 2:1 3:2 4:1 5:1 
100 0 0 1:3 2:1 3:2 4:1 5:0 
97.33863994729472 0 0 1:3 2:1 3:2 4:2 5:2 
0.1523638386239687 0 0 1:3 2:1 3:2 4:2 5:2 
100 0 0 1:3 2:1 3:2 4:2 5:1 
100 0 0 1:3 2:1 3:2 4:2 5:0 
0.3067547580469169 0 0 1:3 2:1 3:3 4:0 5:1 
0.03939796269984135 0 0 1:3 2:1 3:3 4:0 5:1 
0.08213372927464885 0 0 1:3 2:1 3:3 4:0 5:0 
0.1187629667483131 0 0 1:3 2:1 3:3 4:0 5:0 
0.08177880415754524 0 0 1:3 2:1 3:3 4:0 5:0 
3.011815048203707 0 0 1:3 2:1 3:3 4:1 5:2 
95.43820478479032 0 0 1:3 2:1 3:3 4:1 5:2 
100 0 0 1:3 2:1 3:3 4:1 5:1 
100 0 0 1:3 2:1 3:3 4:1 5:0 
98.61366182968739 0 0 1:3 2:1 3:3 4:2 5:2 
2.306836016212151 0 0 1:3 2:1 3:3 4:2 5:2 
100 0 0 1:3 2:1 3:3 4:2 5:1 
100 0 0 1:3 2:1 3:3 4:2 5:0 
0.02717360125658901 0 0 1:0 2:3 3:0 4:1 5:0 
3.416284166493864 0 0 1:0 2:3 3:0 4:1 5:0 
0.08721635824163003 0 0 1:0 2:3 3:0 4:1 5:0 
0.002821071823680764 0 0 1:0 2:3 3:0 4:2 5:0 
0.007529682465787346 0 0 1:0 2:3 3:0 4:2 5:0 
2.117681256792743 0 0 1:0 2:3 3:0 4:2 5:0 
0.03015808221741033 0 0 1:0 2:3 3:1 4:2 5:1 
0.3104446758988387 0 0 1:0 2:3 3:1 4:2 5:1 
2.576247505492725 0 0 1:0 2:3 3:1 4:2 5:1 
0.3404345155738407 0 0 1:0 2:3 3:1 4:2 5:0 
0.4339516965589114 0 0 1:0 2:3 3:1 4:2 5:0 
0.2508098410267776 0 0 1:0 2:3 3:1 4:2 5:0 
1.374101898764515 0 0 1:0 2:3 3:2 4:1 5:1 
0.5055218493020237 0 0 1:0 2:3 3:2 4:1 5:0 
0.4766763188495763 0 0 1:0 2:3 3:2 4:1 5:0 
0.1594633464941583 0 0 1:0 2:3 3:2 4:1 5:0 
0.571496642355654 0 0 1:0 2:3 3:2 4:2 5:1 
0.01988025470162276 0 0 1:0 2:3 3:2 4:2 5:0 
0.03591892183354336 0 0 1:0 2:3 3:2 4:2 5:0 
0.1616626128862776 0 0 1:0 2:3 3:3 4:1 5:1 
0.6291868221154531 0 0 1:0 2:3 3:3 4:1 5:1 
1.115995841357797 0 0 1:0 2:3 3:3 4:1 5:1 
1.032479786773311 0 0 1:0 2:3 3:3 4:1 5:0 
0.2227415171611414 0 0 1:0 2:3 3:3 4:2 5:1 
1.364311653546356 0 0 1:0 2:3 3:3 4:2 5:1 
0.1799633395129669 0 0 1:0 2:3 3:3 4:2 5:1 
0.0802817759712711 0 0 1:0 2:3 3:3 4:2 5:0 
1.511185449733513 0 0 1:0 2:3 3:3 4:2 5:0 
0.01481688770609798 0 0 1:0 2:3 3:3 4:2 5:0 
0.472709369259914 0 0 1:0 2:0 3:0 4:0 5:0 
97.42293853637298 0 0 1:0 2:0 3:0 4:1 5:2 
5.859813675974713 0 0 1:0 2:0 3:0 4:1 5:2 
90.51598787378275 0 0 1:0 2:0 3:0 4:1 5:1 
100 0 0 1:0 2:0 3:0 4:1 5:0 
100 0 0 1:0 2:0 3:0 4:2 5:1 
13.39108110502547 0 0 1:0 2:0 3:0 4:2 5:1 
100 0 0 1:0 2:0 3:0 4:2 5:0 
86.32941368425188 0 0 1:0 2:0 3:1 4:1 5:2 
29.57719432121982 0 0 1:0 2:0 3:1 4:1 5:1 
100 0 0 1:0 2:0 3:1 4:1 5:1 
100 0 0 1:0 2:0 3:1 4:1 5:0 
100 0 0 1:0 2:0 3:1 4:2 5:2 
9.294983576950607 0 0 1:0 2:0 3:1 4:2 5:2 
100 0 0 1:0 2:0 3:1 4:2 5:1 
100 0 0 1:0 2:0 3:1 4:2 5:0 
100 0 0 1:0 2:0 3:2 4:1 5:2 
10.0468056855159 0 0 1:0 2:0 3:2 4:1 5:2 
100 0 0 1:0 2:0 3:2 4:1 5:1 
100 0 0 1:0 2:0 3:2 4:1 5:0 
0.1024702484831296 0 0 1:0 2:0 3:2 4:2 5:2 
98.04997126448222 0 0 1:0 2:0 3:2 4:2 5:2 
100 0 0 1:0 2:0 3:2 4:2 5:1 
100 0 0 1:0 2:0 3:2 4:2 5:0 
0.171025432016367 0 0 1:0 2:0 3:3 4:0 5:1 
0.1836361751335685 0 0 1:0 2:0 3:3 4:0 5:0 
0.1297003942329938 0 0 1:0 2:0 3:3 4:0 5:0 
0.4390285415292486 0 0 1:0 2:0 3:3 4:0 5:0 
0.8448697681944183 0 0 1:0 2:0 3:3 4:1 5:2 
98.73738939693517 0 0 1:0 2:0 3:3 4:1 5:2 
100 0 0 1:0 2:0 3:3 4:1 5:1 
100 0 0 1:0 2:0 3:3 4:1 5:0 
99.99931676298409 0 0 1:0 2:0 3:3 4:2 5:2 
3.30616748465868 0 0 1:0 2:0 3:3 4:2 5:2 
100 0 0 1:0 2:0 3:3 4:2 5:1 
100 0 0 1:0 2:0 3:3 4:2 5:0 
0.1657174361979487 0 0 1:0 2:2 3:0 4:0 5:0 
0.5045118430111153 0 0 1:0 2:2 3:0 4:0 5:0 
0.07959364604837443 0 0 1:0 2:2 3:0 4:0 5:0 
89.59523883306252 0 0 1:0 2:2 3:0 4:1 5:2 
10.86646289909527 0 0 1:0 2:2 3:0 4:1 5:2 
95.18802932302597 0 0 1:0 2:2 3:0 4:1 5:1 
0.3326929526656947 0 0 1:0 2:2 3:0 4:1 5:1 
100 0 0 1:0 2:2 3:0 4:1 5:0 
97.70408195719257 0 0 1:0 2:2 3:0 4:2 5:1 
8.585119386947753 0 0 1:0 2:2 3:0 4:2 5:1 
100 0 0 1:0 2:2 3:0 4:2 5:0 
0.157165699965855 0 0 1:0 2:2 3:1 4:0 5:0 
89.80594075022088 0 0 1:0 2:2 3:1 4:1 5:2 
3.869842274567841 0 0 1:0 2:2 3:1 4:1 5:2 
15.87275526021467 0 0 1:0 2:2 3:1 4:1 5:1 
98.95435629484895 0 0 1:0 2:2 3:1 4:1 5:1 
100 0 0 1:0 2:2 3:1 4:1 5:0 
7.001258931414642 0 0 1:0 2:2 3:1 4:2 5:2 
97.5603902831962 0 0 1:0 2:2 3:1 4:2 5:2 
100 0 0 1:0 2:2 3:1 4:2 5:1 
100 0 0 1:0 2:2 3:1 4:2 5:0 
0.05963974893832379 0 0 1:0 2:2 3:2 4:0 5:1 
0.1459858142602118 0 0 1:0 2:2 3:2 4:0 5:1 
0.09746997207352986 0 0 1:0 2:2 3:2 4:0 5:1 
0.01524660585889287 0 0 1:0 2:2 3:2 4:0 5:0 
0.01067956948747566 0 0 1:0 2:2 3:2 4:0 5:0 
0.005458083147628592 0 0 1:0 2:2 3:2 4:0 5:0 
96.5796565252821 0 0 1:0 2:2 3:2 4:1 5:2 
8.862543584987119 0 0 1:0 2:2 3:2 4:1 5:2 
100 0 0 1:0 2:2 3:2 4:1 5:1 
100 0 0 1:0 2:2 3:2 4:1 5:0 
0.1848177012958077 0 0 1:0 2:2 3:2 4:2 5:2 
96.6208141763377 0 0 1:0 2:2 3:2 4:2 5:2 
100 0 0 1:0 2:2 3:2 4:2 5:1 
100 0 0 1:0 2:2 3:2 4:2 5:0 
0.002815835729083969 0 0 1:0 2:2 3:3 4:0 5:1 
0.3085750297368972 0 0 1:0 2:2 3:3 4:0 5:1 
0.003278168360127138 0 0 1:0 2:2 3:3 4:0 5:1 
0.549563751131355 0 0 1:0 2:2 3:3 4:0 5:0 
96.60169942325564 0 0 1:0 2:2 3:3 4:1 5:2 
1.694044517910286 0 0 1:0 2:2 3:3 4:1 5:2 
100 0 0 1:0 2:2 3:3 4:1 5:1 
100 0 0 1:0 2:2 3:3 4:1 5:0 
99.76792398311318 0 0 1:0 2:2 3:3 4:2 5:2 
2.370620469822038 0 0 1:0 2:2 3:3 4:2 5:2 
100 0 0 1:0 2:2 3:3 4:2 5:1 
100 0 0 1:0 2:2 3:3 4:2 5:0 
4.347670305638032 0 0 1:0 2:1 3:0 4:1 5:2 
95.68701605274563 0 0 1:0 2:1 3:0 4:1 5:2 
93.92764757246303 0 0 1:0 2:1 3:0 4:1 5:1 
6.097566535461951 0 0 1:0 2:1 3:0 4:1 5:1 
100 0 0 1:0 2:1 3:0 4:1 5:0 
0.970471859990149 0 0 1:0 2:1 3:0 4:2 5:1 
99.40293288177595 0 0 1:0 2:1 3:0 4:2 5:1 
100 0 0 1:0 2:1 3:0 4:2 5:0 
97.81229866673002 0 0 1:0 2:1 3:1 4:1 5:2 
1.93985014211387 0 0 1:0 2:1 3:1 4:1 5:2 
99.29131900483742 0 0 1:0 2:1 3:1 4:1 5:1 
4.043174572454025 0 0 1:0 2:1 3:1 4:1 5:1 
100 0 0 1:0 2:1 3:1 4:1 5:0 
97.48495026770148 0 0 1:0 2:1 3:1 4:2 5:2 
2.659286358426633 0 0 1:0 2:1 3:1 4:2 5:2 
100 0 0 1:0 2:1 3:1 4:2 5:1 
100 0 0 1:0 2:1 3:1 4:2 5:0 
98.52298977155729 0 0 1:0 2:1 3:2 4:1 5:2 
1.418169181504108 0 0 1:0 2:1 3:2 4:1 5:2 
100 0 0 1:0 2:1 3:2 4:1 5:1 
100 0 0 1:0 2:1 3:2 4:1 5:0 
0.9609211106791851 0 0 1:0 2:1 3:2 4:2 5:2 
99.46909951159873 0 0 1:0 2:1 3:2 4:2 5:2 
100 0 0 1:0 2:1 3:2 4:2 5:1 
100 0 0 1:0 2:1 3:2 4:2 5:0 
93.41435586673605 0 0 1:0 2:1 3:3 4:1 5:2 
6.96413275601012 0 0 1:0 2:1 3:3 4:1 5:2 
100 0 0 1:0 2:1 3:3 4:1 5:1 
100 0 0 1:0 2:1 3:3 4:1 5:0 
99.7882680096353 0 0 1:0 2:1 3:3 4:2 5:2 
0.247734990287384 0 0 1:0 2:1 3:3 4:2 5:2 
100 0 0 1:0 2:1 3:3 4:2 5:1 
100 0 0 1:0 2:1 3:3 4:2 5:0 
0.01858228375542823 0 0 1:2 2:3 3:0 4:0 5:0 
0.4084341485271903 0 0 1:2 2:3 3:0 4:0 5:0 
0.01519720476009253 0 0 1:2 2:3 3:0 4:0 5:0 
92.67075243622098 0 0 1:2 2:3 3:0 4:1 5:2 
8.359821326395046 0 0 1:2 2:3 3:0 4:1 5:2 
92.94083164261072 0 0 1:2 2:3 3:0 4:1 5:1 
3.081368103890542 0 0 1:2 2:3 3:0 4:1 5:1 
100 0 0 1:2 2:3 3:0 4:1 5:0 
97.09234416037162 0 0 1:2 2:3 3:0 4:2 5:1 
10.85228111587419 0 0 1:2 2:3 3:0 4:2 5:1 
100 0 0 1:2 2:3 3:0 4:2 5:0 
0.01578290337553779 0 0 1:2 2:3 3:1 4:0 5:0 
0.09622314750612244 0 0 1:2 2:3 3:1 4:0 5:0 
92.26246189310793 0 0 1:2 2:3 3:1 4:1 5:2 
0.2876919801369833 0 0 1:2 2:3 3:1 4:1 5:2 
17.39373132602296 0 0 1:2 2:3 3:1 4:1 5:1 
98.95682471073746 0 0 1:2 2:3 3:1 4:1 5:1 
100 0 0 1:2 2:3 3:1 4:1 5:0 
8.302693876409188 0 0 1:2 2:3 3:1 4:2 5:2 
96.74253172740738 0 0 1:2 2:3 3:1 4:2 5:2 
100 0 0 1:2 2:3 3:1 4:2 5:1 
100 0 0 1:2 2:3 3:1 4:2 5:0 
99.38004519544769 0 0 1:2 2:3 3:2 4:1 5:2 
5.710356563020299 0 0 1:2 2:3 3:2 4:1 5:2 
100 0 0 1:2 2:3 3:2 4:1 5:1 
100 0 0 1:2 2:3 3:2 4:1 5:0 
97.10515118044998 0 0 1:2 2:3 3:2 4:2 5:2 
1.912327313839072 0 0 1:2 2:3 3:2 4:2 5:2 
100 0 0 1:2 2:3 3:2 4:2 5:1 
100 0 0 1:2 2:3 3:2 4:2 5:0 
0.003003102730419797 0 0 1:2 2:3 3:3 4:0 5:0 
0.4416848944947905 0 0 1:2 2:3 3:3 4:0 5:0 
0.05805323370339563 0 0 1:2 2:3 3:3 4:0 5:0 
2.132491215504493 0 0 1:2 2:3 3:3 4:1 5:2 
98.07872883859365 0 0 1:2 2:3 3:3 4:1 5:2 
100 0 0 1:2 2:3 3:3 4:1 5:1 
100 0 0 1:2 2:3 3:3 4:1 5:0 
99.90530424591751 0 0 1:2 2:3 3:3 4:2 5:2 
2.696722773075438 0 0 1:2 2:3 3:3 4:2 5:2 
100 0 0 1:2 2:3 3:3 4:2 5:1 
100 0 0 1:2 2:3 3:3 4:2 5:0 
0.188514615671452 0 0 1:2 2:0 3:0 4:0 5:0 
95.96233786770794 0 0 1:2 2:0 3:0 4:1 5:2 
7.835001539000801 0 0 1:2 2:0 3:0 4:1 5:2 
90.46460491985131 0 0 1:2 2:0 3:0 4:1 5:1 
100 0 0 1:2 2:0 3:0 4:1 5:0 
100 0 0 1:2 2:0 3:0 4:2 5:1 
14.33069492709928 0 0 1:2 2:0 3:0 4:2 5:1 
100 0 0 1:2 2:0 3:0 4:2 5:0 
85.57450691026068 0 0 1:2 2:0 3:1 4:1 5:2 
100 0 0 1:2 2:0 3:1 4:1 5:1 
32.7322872468232 0 0 1:2 2:0 3:1 4:1 5:1 
100 0 0 1:2 2:0 3:1 4:1 5:0 
100 0 0 1:2 2:0 3:1 4:2 5:2 
9.652862055808761 0 0 1:2 2:0 3:1 4:2 5:2 
100 0 0 1:2 2:0 3:1 4:2 5:1 
100 0 0 1:2 2:0 3:1 4:2 5:0 
9.963250043131138 0 0 1:2 2:0 3:2 4:1 5:2 
99.96798491315487 0 0 1:2 2:0 3:2 4:1 5:2 
100 0 0 1:2 2:0 3:2 4:1 5:1 
100 0 0 1:2 2:0 3:2 4:1 5:0 
95.17377190174099 0 0 1:2 2:0 3:2 4:2 5:2 
4.403773944481057 0 0 1:2 2:0 3:2 4:2 5:2 
100 0 0 1:2 2:0 3:2 4:2 5:1 
100 0 0 1:2 2:0 3:2 4:2 5:0 
0.1746469254152984 0 0 1:2 2:0 3:3 4:0 5:0 
0.1371788733572801 0 0 1:2 2:0 3:3 4:0 5:0 
0.3161593114459498 0 0 1:2 2:0 3:3 4:0 5:0 
2.862084462954321 0 0 1:2 2:0 3:3 4:1 5:2 
97.84796043975042 0 0 1:2 2:0 3:3 4:1 5:2 
100 0 0 1:2 2:0 3:3 4:1 5:1 
100 0 0 1:2 2:0 3:3 4:1 5:0 
99.26524586114057 0 0 1:2 2:0 3:3 4:2 5:2 
4.082272740881074 0 0 1:2 2:0 3:3 4:2 5:2 
100 0 0 1:2 2:0 3:3 4:2 5:1 
100 0 0 1:2 2:0 3:3 4:2 5:0 
1.428300963328438 0 0 1:2 2:2 3:0 4:0 5:2 
0.7199393597457209 0 0 1:2 2:2 3:0 4:0 5:2 
0.0002922727260560824 0 0 1:2 2:2 3:0 4:0 5:2 
100 0 0 1:2 2:2 3:0 4:1 5:2 
100 0 0 1:2 2:2 3:0 4:1 5:1 
100 100 0 1:2 2:2 3:0 4:1 5:0 
0.01229888152661134 0 0 1:2 2:2 3:0 4:2 5:2 
1.148689960014643 0 0 1:2 2:2 3:0 4:2 5:2 
5.017160175626309 0 0 1:2 2:2 3:0 4:2 5:2 
100 0 0 1:2 2:2 3:0 4:2 5:1 
100 100 0 1:2 2:2 3:0 4:2 5:0 
0.1063118415304701 0 0 1:2 2:2 3:1 4:0 5:0 
100 0 0 1:2 2:2 3:1 4:1 5:2 
100 0 0 1:2 2:2 3:1 4:1 5:1 
100 100 0 1:2 2:2 3:1 4:1 5:0 
100 0 0 1:2 2:2 3:1 4:2 5:2 
100 100 0 1:2 2:2 3:1 4:2 5:1 
100 100 0 1:2 2:2 3:1 4:2 5:0 
0.01221544291393563 0 0 1:2 2:2 3:2 4:0 5:1 
0.3065779746038507 0 0 1:2 2:2 3:2 4:0 5:1 
0.3753942794333752 0 0 1:2 2:2 3:2 4:0 5:1 
100 0 0 1:2 2:2 3:2 4:1 5:2 
100 100 0 1:2 2:2 3:2 4:1 5:1 
100 100 0 1:2 2:2 3:2 4:1 5:0 
100 0 0 1:2 2:2 3:2 4:2 5:2 
100 100 0 1:2 2:2 3:2 4:2 5:1 
98.92267907141506 100 0 1:2 2:2 3:2 4:2 5:0 
0.03627210620341158 0 0 1:2 2:2 3:3 4:0 5:2 
0.5393071251898798 0 0 1:2 2:2 3:3 4:0 5:2 
0.07579219309950988 0 0 1:2 2:2 3:3 4:0 5:2 
100 0 0 1:2 2:2 3:3 4:1 5:2 
100 100 0 1:2 2:2 3:3 4:1 5:1 
100 100 0 1:2 2:2 3:3 4:1 5:0 
100 0 0 1:2 2:2 3:3 4:2 5:2 
100 100 0 1:2 2:2 3:3 4:2 5:1 
100 100 0 1:2 2:2 3:3 4:2 5:0 
100 0 100 1:2 2:1 3:0 4:1 5:2 
100 0 100 1:2 2:1 3:0 4:1 5:1 
3.330774290960238 100 100 1:2 2:1 3:0 4:1 5:0 
100 0 100 1:2 2:1 3:0 4:2 5:1 
3.240382443479616 100 100 1:2 2:1 3:0 4:2 5:0 
100 0 100 1:2 2:1 3:1 4:1 5:2 
98.94420568524427 0 100 1:2 2:1 3:1 4:1 5:1 
3.307056656216853 100 100 1:2 2:1 3:1 4:1 5:0 
100 0 100 1:2 2:1 3:1 4:2 5:2 
7.600080861641829 100 100 1:2 2:1 3:1 4:2 5:1 
0 100 100 1:2 2:1 3:1 4:2 5:0 
100 0 100 1:2 2:1 3:2 4:1 5:2 
6.548813474375073 100 100 1:2 2:1 3:2 4:1 5:1 
0 100 100 1:2 2:1 3:2 4:1 5:0 
100 0 100 1:2 2:1 3:2 4:2 5:2 
0 100 100 1:2 2:1 3:2 4:2 5:1 
0 100 100 1:2 2:1 3:2 4:2 5:0 
100 0 100 1:2 2:1 3:3 4:1 5:2 
1.376473325142361 100 100 1:2 2:1 3:3 4:1 5:1 
0.6295028776751357 100 100 1:2 2:1 3:3 4:1 5:0 
100 0 100 1:2 2:1 3:3 4:2 5:2 
2.873855827465217 100 100 1:2 2:1 3:3 4:2 5:1 
1.103622581501657 100 100 1:2 2:1 3:3 4:2 5:0 
0.3850767186603881 0 0 1:1 2:3 3:0 4:0 5:0 
99.71284210779308 0 0 1:1 2:3 3:0 4:1 5:2 
0.7242073053973247 0 0 1:1 2:3 3:0 4:1 5:2 
92.7288635691433 0 0 1:1 2:3 3:0 4:1 5:1 
4.507706796870862 0 0 1:1 2:3 3:0 4:1 5:1 
100 0 0 1:1 2:3 3:0 4:1 5:0 
100 0 0 1:1 2:3 3:0 4:2 5:1 
4.265287149942977 0 0 1:1 2:3 3:0 4:2 5:1 
100 0 0 1:1 2:3 3:0 4:2 5:0 
0.03366262419076072 0 0 1:1 2:3 3:1 4:0 5:0 
0.07329812893325205 0 0 1:1 2:3 3:1 4:0 5:0 
0.0340422673499355 0 0 1:1 2:3 3:1 4:0 5:0 
95.82943014938793 0 0 1:1 2:3 3:1 4:1 5:2 
10.44356601787505 0 0 1:1 2:3 3:1 4:1 5:1 
99.75056795219737 0 0 1:1 2:3 3:1 4:1 5:1 
100 0 0 1:1 2:3 3:1 4:1 5:0 
3.142821593454229 0 0 1:1 2:3 3:1 4:2 5:2 
99.80430414442864 0 0 1:1 2:3 3:1 4:2 5:2 
100 0 0 1:1 2:3 3:1 4:2 5:1 
100 0 0 1:1 2:3 3:1 4:2 5:0 
0.106333828886125 0 0 1:1 2:3 3:2 4:0 5:0 
97.71043715637501 0 0 1:1 2:3 3:2 4:1 5:2 
5.560025507378633 0 0 1:1 2:3 3:2 4:1 5:2 
100 0 0 1:1 2:3 3:2 4:1 5:1 
100 0 0 1:1 2:3 3:2 4:1 5:0 
98.27108351837028 0 0 1:1 2:3 3:2 4:2 5:2 
0.3381867765019342 0 0 1:1 2:3 3:2 4:2 5:2 
100 0 0 1:1 2:3 3:2 4:2 5:1 
100 0 0 1:1 2:3 3:2 4:2 5:0 
0.2648191276764786 0 0 1:1 2:3 3:3 4:0 5:1 
0.01343445662143481 0 0 1:1 2:3 3:3 4:0 5:1 
0.0392448903941208 0 0 1:1 2:3 3:3 4:0 5:0 
0.1388823573793654 0 0 1:1 2:3 3:3 4:0 5:0 
0.07002211163629737 0 0 1:1 2:3 3:3 4:0 5:0 
1.248305813857457 0 0 1:1 2:3 3:3 4:1 5:2 
98.16961861667029 0 0 1:1 2:3 3:3 4:1 5:2 
100 0 0 1:1 2:3 3:3 4:1 5:1 
100 0 0 1:1 2:3 3:3 4:1 5:0 
99.75811388123729 0 0 1:1 2:3 3:3 4:2 5:2 
1.538459181703488 0 0 1:1 2:3 3:3 4:2 5:2 
100 0 0 1:1 2:3 3:3 4:2 5:1 
100 0 0 1:1 2:3 3:3 4:2 5:0 
1.792131703390065 0 0 1:1 2:0 3:0 4:0 5:2 
0.3692767147216392 0 0 1:1 2:0 3:0 4:0 5:2 
0.00065960620315525 0 0 1:1 2:0 3:0 4:0 5:2 
100 0 0 1:1 2:0 3:0 4:1 5:2 
100 0 0 1:1 2:0 3:0 4:1 5:1 
100 100 0 1:1 2:0 3:0 4:1 5:0 
1.575382136780235 0 0 1:1 2:0 3:0 4:2 5:2 
4.815908995811474 0 0 1:1 2:0 3:0 4:2 5:2 
100 0 0 1:1 2:0 3:0 4:2 5:1 
100 100 0 1:1 2:0 3:0 4:2 5:0 
0.5613749474088094 0 0 1:1 2:0 3:1 4:0 5:0 
0.6556929820243815 0 0 1:1 2:0 3:1 4:0 5:0 
0.1390524991359119 0 0 1:1 2:0 3:1 4:0 5:0 
100 0 0 1:1 2:0 3:1 4:1 5:2 
100 0 0 1:1 2:0 3:1 4:1 5:1 
100 100 0 1:1 2:0 3:1 4:1 5:0 
100 0 0 1:1 2:0 3:1 4:2 5:2 
100 100 0 1:1 2:0 3:1 4:2 5:1 
100 100 0 1:1 2:0 3:1 4:2 5:0 
0.1677150582572352 0 0 1:1 2:0 3:2 4:0 5:1 
0.004832730036727013 0 0 1:1 2:0 3:2 4:0 5:1 
0.203220551535065 0 0 1:1 2:0 3:2 4:0 5:1 
100 0 0 1:1 2:0 3:2 4:1 5:2 
100 100 0 1:1 2:0 3:2 4:1 5:1 
100 100 0 1:1 2:0 3:2 4:1 5:0 
100 0 0 1:1 2:0 3:2 4:2 5:2 
100 100 0 1:1 2:0 3:2 4:2 5:1 
100 100 0 1:1 2:0 3:2 4:2 5:0 
0.2078053092917876 0 0 1:1 2:0 3:3 4:0 5:2 
0.6423855998387299 0 0 1:1 2:0 3:3 4:0 5:2 
100 0 0 1:1 2:0 3:3 4:1 5:2 
100 100 0 1:1 2:0 3:3 4:1 5:1 
100 100 0 1:1 2:0 3:3 4:1 5:0 
100 0 0 1:1 2:0 3:3 4:2 5:2 
100 100 0 1:1 2:0 3:3 4:2 5:1 
100 100 0 1:1 2:0 3:3 4:2 5:0 
0.01486379335296021 0 0 1:1 2:2 3:0 4:0 5:2 
0.04501353796827873 0 0 1:1 2:2 3:0 4:0 5:2 
0.03603486537151892 0 0 1:1 2:2 3:0 4:0 5:2 
100 0 100 1:1 2:2 3:0 4:1 5:2 
100 0 100 1:1 2:2 3:0 4:1 5:1 
3.611049121634316 100 100 1:1 2:2 3:0 4:1 5:0 
100 0 100 1:1 2:2 3:0 4:2 5:1 
3.317493156422791 100 100 1:1 2:2 3:0 4:2 5:0 
100 0 100 1:1 2:2 3:1 4:1 5:2 
99.98300377124684 0 100 1:1 2:2 3:1 4:1 5:1 
2.262397263254053 100 100 1:1 2:2 3:1 4:1 5:0 
100 0 100 1:1 2:2 3:1 4:2 5:2 
7.397997738374683 100 100 1:1 2:2 3:1 4:2 5:1 
0 100 100 1:1 2:2 3:1 4:2 5:0 
100 0 100 1:1 2:2 3:2 4:1 5:2 
6.141534327525347 100 100 1:1 2:2 3:2 4:1 5:1 
0 100 100 1:1 2:2 3:2 4:1 5:0 
100 0 100 1:1 2:2 3:2 4:2 5:2 
0 100 99.99991105740982 1:1 2:2 3:2 4:2 5:1 
0 100 100 1:1 2:2 3:2 4:2 5:0 
100 0 100 1:1 2:2 3:3 4:1 5:2 
1.752710849785216 100 100 1:1 2:2 3:3 4:1 5:1 
0.2101412679006397 100 100 1:1 2:2 3:3 4:1 5:0 
100 0 100 1:1 2:2 3:3 4:2 5:2 
3.009903766491453 100 100 1:1 2:2 3:3 4:2 5:1 
0.8710192440653669 100 100 1:1 2:2 3:3 4:2 5:0 
0.1785729772537848 0 0 1:1 2:1 3:0 4:0 5:2 
100 0 100 1:1 2:1 3:0 4:1 5:2 
100 0 100 1:1 2:1 3:0 4:1 5:1 
0 100 100 1:1 2:1 3:0 4:1 5:0 
100 0 100 1:1 2:1 3:0 4:2 5:1 
0 100 100 1:1 2:1 3:0 4:2 5:0 
100 0 100 1:1 2:1 3:1 4:1 5:2 
95.55992487020661 0 100 1:1 2:1 3:1 4:1 5:1 
0 100 100 1:1 2:1 3:1 4:1 5:0 
100 0 100 1:1 2:1 3:1 4:2 5:2 
0 99.99999999999997 100 1:1 2:1 3:1 4:2 5:1 
0 100 100 1:1 2:1 3:1 4:2 5:0 
100 0 100 1:1 2:1 3:2 4:1 5:2 
0 100 100 1:1 2:1 3:2 4:1 5:1 
0 100 100 1:1 2:1 3:2 4:1 5:0 
100 0 100 1:1 2:1 3:2 4:2 5:2 
0 100 100 1:1 2:1 3:2 4:2 5:1 
0 100 100 1:1 2:1 3:2 4:2 5:0 
100 0 100 1:1 2:1 3:3 4:1 5:2 
0 100 100 1:1 2:1 3:3 4:1 5:1 
0 100 100 1:1 2:1 3:3 4:1 5:0 
100 0 100 1:1 2:1 3:3 4:2 5:2 
0 100 100 1:1 2:1 3:3 4:2 5:1 
0 100 100 1:1 2:1 3:3 4:2 5:0 
-100 0 0 1:3 2:2 3:0 4:1 5:2 
-100 0 0 1:3 2:2 3:0 4:1 5:1 
-2.501873030816421 0 0 1:3 2:2 3:0 4:1 5:0 
-97.48680822105595 0.0340376687395094 0 1:3 2:2 3:0 4:1 5:0 
-100 0 0 1:3 2:2 3:0 4:2 5:1 
-2.441757662556255 0 0 1:3 2:2 3:0 4:2 5:0 
-100 0 0 1:3 2:2 3:0 4:2 5:0 
-100 0 0 1:3 2:2 3:1 4:1 5:2 
-100 0 0 1:3 2:2 3:1 4:1 5:1 
-100 0 0 1:3 2:2 3:1 4:1 5:0 
-5.915321580514131 0 0 1:3 2:2 3:1 4:1 5:0 
-100 0 0 1:3 2:2 3:1 4:2 5:2 
-13.83875597564439 0 0 1:3 2:2 3:1 4:2 5:1 
-100 0 0 1:3 2:2 3:1 4:2 5:1 
-94.94485798028755 0 0 1:3 2:2 3:1 4:2 5:0 
-100 0 0 1:3 2:2 3:2 4:1 5:2 
-9.822889207576996 0 0 1:3 2:2 3:2 4:1 5:1 
-100 0 0 1:3 2:2 3:2 4:1 5:1 
-95.80537140444439 0 0 1:3 2:2 3:2 4:1 5:0 
-100 0 0 1:3 2:2 3:2 4:2 5:2 
-93.5621295391702 0 0 1:3 2:2 3:2 4:2 5:1 
-0.1851817099739799 0 0 1:3 2:2 3:2 4:2 5:1 
-3.252148299786437 0 0 1:3 2:2 3:2 4:2 5:0 
-99.63770668442177 0 0 1:3 2:2 3:2 4:2 5:0 
-100 0 0 1:3 2:2 3:3 4:1 5:2 
-3.100642041341649 0 0 1:3 2:2 3:3 4:1 5:1 
-94.14400767990062 0 0 1:3 2:2 3:3 4:1 5:1 
-99.55021841087478 0 0 1:3 2:2 3:3 4:1 5:0 
-3.098533072360715 0.08237249686935676 0 1:3 2:2 3:3 4:1 5:0 
-100 0 0 1:3 2:2 3:3 4:2 5:2 
-6.312758865618725 0 0 1:3 2:2 3:3 4:2 5:1 
-97.1623447401129 0 0 1:3 2:2 3:3 4:2 5:1 
-96.2992581825097 0 0 1:3 2:2 3:3 4:2 5:0 
-3.042448821009413 0 0 1:3 2:2 3:3 4:2 5:0 
-100 0 0 1:3 2:1 3:0 4:1 5:2 
-100 0 0 1:3 2:1 3:0 4:1 5:1 
-99.61745539937526 0.5681307346868492 0.3012019977623928 1:3 2:1 3:0 4:1 5:0 
-2.687604894288933 0 0.0009733287346959049 1:3 2:1 3:0 4:1 5:0 
-100 0 0 1:3 2:1 3:0 4:2 5:1 
-4.445980046798153 0 0.2117090505977946 1:3 2:1 3:0 4:2 5:0 
-99.44118658094007 0.2786465778391756 0.01403867408971242 1:3 2:1 3:0 4:2 5:0 
-100 0 0 1:3 2:1 3:1 4:1 5:2 
-100 0 0 1:3 2:1 3:1 4:1 5:1 
-8.519968352848382 0 0 1:3 2:1 3:1 4:1 5:0 
-96.90990501057185 0 0.05567098153490304 1:3 2:1 3:1 4:1 5:0 
-100 0 0 1:3 2:1 3:1 4:2 5:2 
-7.958766101763961 0 0.000585694552270969 1:3 2:1 3:1 4:2 5:1 
-99.40581528312947 0 0.22883804119185 1:3 2:1 3:1 4:2 5:1 
-96.78334740904909 0.4205748766385443 0.04321256618753189 1:3 2:1 3:1 4:2 5:0 
-1.044140907336084 0.04126136498945123 0 1:3 2:1 3:1 4:2 5:0 
-100 0 0 1:3 2:1 3:2 4:1 5:2 
-99.73916367827074 0 0.001158399889658291 1:3 2:1 3:2 4:1 5:1 
-7.10615242596224 0 0.08814079127958833 1:3 2:1 3:2 4:1 5:1 
-95.36424593099963 0 0.04970275690776288 1:3 2:1 3:2 4:1 5:0 
-1.983643764595118 0.2697894722942818 0 1:3 2:1 3:2 4:1 5:0 
-100 0 0 1:3 2:1 3:2 4:2 5:2 
-96.19988914119436 0 0 1:3 2:1 3:2 4:2 5:1 
-0.4316398999142749 0.6105820219397687 0.06461375340140681 1:3 2:1 3:2 4:2 5:1 
-99.18655984414823 0 0 1:3 2:1 3:2 4:2 5:0 
-3.95063904484722 0 0 1:3 2:1 3:2 4:2 5:0 
-100 0 0 1:3 2:1 3:3 4:1 5:2 
-96.21478640625922 0 0.1429662421805889 1:3 2:1 3:3 4:1 5:1 
-3.470792348764673 0.3954797592793357 0.01727216948616605 1:3 2:1 3:3 4:1 5:1 
-3.121446098979558 0.1211187428207003 0 1:3 2:1 3:3 4:1 5:0 
-99.94159063128141 0.04004494592980382 0.1771469834172296 1:3 2:1 3:3 4:1 5:0 
-100 0 0 1:3 2:1 3:3 4:2 5:2 
-3.931333714012877 0 0.1472144815515397 1:3 2:1 3:3 4:2 5:1 
-99.91656051288292 0.00379967681880579 0 1:3 2:1 3:3 4:2 5:1 
-0.04238929439685769 0 0.03425955382746017 1:3 2:1 3:3 4:2 5:0 
-99.68584416907359 0.332249520806734 0.1689526280776197 1:3 2:1 3:3 4:2 5:0 
-100 0 0 1:0 2:0 3:0 4:1 5:2 
-100 0 0 1:0 2:0 3:0 4:1 5:1 
-2.442486361117926 0 0 1:0 2:0 3:0 4:1 5:0 
-96.96743368936751 0 0 1:0 2:0 3:0 4:1 5:0 
-100 0 0 1:0 2:0 3:0 4:2 5:1 
-100 0 0 1:0 2:0 3:0 4:2 5:0 
-5.611111534499254 0 0 1:0 2:0 3:0 4:2 5:0 
-100 0 0 1:0 2:0 3:1 4:1 5:2 
-100 0 0 1:0 2:0 3:1 4:1 5:1 
-99.99663294086405 0 0 1:0 2:0 3:1 4:1 5:0 
-11.03753077533113 0 0 1:0 2:0 3:1 4:1 5:0 
-100 0 0 1:0 2:0 3:1 4:2 5:2 
-100 0 0 1:0 2:0 3:1 4:2 5:1 
-24.61771556421369 0 0 1:0 2:0 3:1 4:2 5:1 
-0.003282217327304264 0 0 1:0 2:0 3:1 4:2 5:0 
-91.9954860080347 0 0 1:0 2:0 3:1 4:2 5:0 
-100 0 0 1:0 2:0 3:2 4:1 5:2 
-99.98923373575244 0 0 1:0 2:0 3:2 4:1 5:1 
-19.77244382164075 0 0 1:0 2:0 3:2 4:1 5:1 
-0.9200992957861501 0 0 1:0 2:0 3:2 4:1 5:0 
-92.20379472065119 0 0 1:0 2:0 3:2 4:1 5:0 
-100 0 0 1:0 2:0 3:2 4:2 5:2 
-0.3723041559307559 0 0 1:0 2:0 3:2 4:2 5:1 
-89.75778725304569 0 0 1:0 2:0 3:2 4:2 5:1 
-97.02934520380975 0 0 1:0 2:0 3:2 4:2 5:0 
-8.941725317107711 0 0 1:0 2:0 3:2 4:2 5:0 
-100 0 0 1:0 2:0 3:3 4:1 5:2 
-0.009683589456534367 0 0 1:0 2:0 3:3 4:1 5:1 
-95.54030651995704 0 0 1:0 2:0 3:3 4:1 5:1 
-4.213551059284042 0 0 1:0 2:0 3:3 4:1 5:0 
-99.99123766698654 0 0 1:0 2:0 3:3 4:1 5:0 
-100 0 0 1:0 2:0 3:3 4:2 5:2 
-5.640708157326451 0 0 1:0 2:0 3:3 4:2 5:1 
-99.99185204528106 0 0 1:0 2:0 3:3 4:2 5:1 
-97.68487588919224 0 0 1:0 2:0 3:3 4:2 5:0 
-0.004746833513694849 0 0 1:0 2:0 3:3 4:2 5:0 
-100 0 0 1:0 2:2 3:0 4:1 5:2 
-100 0 0 1:0 2:2 3:0 4:1 5:1 
-100 0.01882699099275203 0 1:0 2:2 3:0 4:1 5:0 
-2.450065948200866 0.4989930947103325 1.28884358307702 1:0 2:2 3:0 4:1 5:0 
-100 0 0 1:0 2:2 3:0 4:2 5:1 
-95.49868640332811 0.2522651303129581 0.9498118790344443 1:0 2:2 3:0 4:2 5:0 
-11.0738974596048 0 0.007505287571979703 1:0 2:2 3:0 4:2 5:0 
-100 0 0 1:0 2:2 3:1 4:1 5:2 
-100 0 0 1:0 2:2 3:1 4:1 5:1 
-9.992741632022256 0 0.02581047527735646 1:0 2:2 3:1 4:1 5:0 
-99.11823231217485 0 0.1025764271774116 1:0 2:2 3:1 4:1 5:0 
-100 0 0 1:0 2:2 3:1 4:2 5:2 
-99.7928158992935 0 1.07022926087063 1:0 2:2 3:1 4:2 5:1 
-18.2022096428284 0 0 1:0 2:2 3:1 4:2 5:1 
-1.084149183214385 0.09131565755987459 0 1:0 2:2 3:1 4:2 5:0 
-92.22380217500418 0.546478354027691 0.1009777473064371 1:0 2:2 3:1 4:2 5:0 
-100 0 0 1:0 2:2 3:2 4:1 5:2 
-98.81700472333131 0 0.3130892017072875 1:0 2:2 3:2 4:1 5:1 
-16.17607649037127 0 0 1:0 2:2 3:2 4:1 5:1 
-93.30648657575497 0.2240755894016479 0.3611793159647554 1:0 2:2 3:2 4:1 5:0 
-1.189931014601313 0 0 1:0 2:2 3:2 4:1 5:0 
-100 0 0 1:0 2:2 3:2 4:2 5:2 
-90.65668097491975 0.2599078776167268 0 1:0 2:2 3:2 4:2 5:1 
-0.2838046633081321 0.477866426213519 0.09429082241992016 1:0 2:2 3:2 4:2 5:1 
-95.0300632626229 0 0 1:0 2:2 3:2 4:2 5:0 
-10.52711134250024 0 0.00790468292418752 1:0 2:2 3:2 4:2 5:0 
-100 0 0 1:0 2:2 3:3 4:1 5:2 
-95.37774287964842 0.3238590643290791 0.3196478600655971 1:0 2:2 3:3 4:1 5:1 
-2.53705843317935 0.02929335145076124 0.3813865447170982 1:0 2:2 3:3 4:1 5:1 
-97.0566711238891 0.1934558801293164 0.6524788430793717 1:0 2:2 3:3 4:1 5:0 
-7.423547189401437 0 0 1:0 2:2 3:3 4:1 5:0 
-100 0 0 1:0 2:2 3:3 4:2 5:2 
-99.69746071487388 0 0 1:0 2:2 3:3 4:2 5:1 
-7.394843473952106 0 0.7023355213846701 1:0 2:2 3:3 4:2 5:1 
-1.200140208635944 0.3018393365809714 0 1:0 2:2 3:3 4:2 5:0 
-98.06245443436903 0 0.8580236418614998 1:0 2:2 3:3 4:2 5:0 
-100 0 0 1:0 2:1 3:0 4:1 5:2 
-100 0 0 1:0 2:1 3:0 4:1 5:1 
-98.60339534808736 0.2529863234069727 0.00971259955135413 1:0 2:1 3:0 4:1 5:0 
-1.150365399841875 0 0.08827245629375911 1:0 2:1 3:0 4:1 5:0 
-100 0 0 1:0 2:1 3:0 4:2 5:1 
-2.033857283944878 0 0.09408588499448305 1:0 2:1 3:0 4:2 5:0 
-97.76637462500129 0 0 1:0 2:1 3:0 4:2 5:0 
-100 0 0 1:0 2:1 3:1 4:1 5:2 
-100 0 0 1:0 2:1 3:1 4:1 5:1 
-99.50876876451844 0 0 1:0 2:1 3:1 4:1 5:0 
-0.7993762186670308 0 0 1:0 2:1 3:1 4:1 5:0 
-100 0 0 1:0 2:1 3:1 4:2 5:2 
-98.22960460961251 0 0.03086561150865016 1:0 2:1 3:1 4:2 5:1 
-2.470717583560988 0 0 1:0 2:1 3:1 4:2 5:1 
-7.258226100583698 0.3456911170666504 0.0265237568883808 1:0 2:1 3:1 4:2 5:0 
-92.79004445561003 0 0 1:0 2:1 3:1 4:2 5:0 
-100 0 0 1:0 2:1 3:2 4:1 5:2 
-1.810654771533162 0 0 1:0 2:1 3:2 4:1 5:1 
-98.8638929706368 0 0 1:0 2:1 3:2 4:1 5:1 
-96.00245479643293 0 0 1:0 2:1 3:2 4:1 5:0 
-3.973430483625729 0.0613648849641131 0.01925424446705968 1:0 2:1 3:2 4:1 5:0 
-100 0 0 1:0 2:1 3:2 4:2 5:2 
-0.469793065234148 0.2443898644299038 0.06279299775534951 1:0 2:1 3:2 4:2 5:1 
-99.94125181541774 0.04913187625125721 0 1:0 2:1 3:2 4:2 5:1 
-0.7227965769607363 0 0 1:0 2:1 3:2 4:2 5:0 
-98.75106463578491 0 0 1:0 2:1 3:2 4:2 5:0 
-100 0 0 1:0 2:1 3:3 4:1 5:2 
-2.976522507370451 0.1378333873599726 0.07575282094182233 1:0 2:1 3:3 4:1 5:1 
-97.03888718273413 0 0 1:0 2:1 3:3 4:1 5:1 
-0.9349577470838784 0.1666720626808199 0.03534733315655723 1:0 2:1 3:3 4:1 5:0 
-98.44966278125349 0 0.02453825372286937 1:0 2:1 3:3 4:1 5:0 
-100 0 0 1:0 2:1 3:3 4:2 5:2 
-1.306702321816733 0 0.02027581204108113 1:0 2:1 3:3 4:2 5:1 
-98.49867137060308 0 0.01005150531172943 1:0 2:1 3:3 4:2 5:1 
-99.62170578632536 0.00273707422792217 0 1:0 2:1 3:3 4:2 5:0 
-0.1297151848834605 0.06434005973839521 0.07921041824989078 1:0 2:1 3:3 4:2 5:0 
-100 0 0 1:2 2:3 3:0 4:1 5:2 
-100 0 0 1:2 2:3 3:0 4:1 5:1 
-96.10476962899187 0 0 1:2 2:3 3:0 4:1 5:0 
-3.638081972347254 0 0 1:2 2:3 3:0 4:1 5:0 
-100 0 0 1:2 2:3 3:0 4:2 5:1 
-99.33708934716589 0 0 1:2 2:3 3:0 4:2 5:0 
-2.59929481658188 0 0 1:2 2:3 3:0 4:2 5:0 
-100 0 0 1:2 2:3 3:1 4:1 5:2 
-100 0 0 1:2 2:3 3:1 4:1 5:1 
-6.798917238074022 0 0 1:2 2:3 3:1 4:1 5:0 
-98.84206319008278 0 0 1:2 2:3 3:1 4:1 5:0 
-100 0 0 1:2 2:3 3:1 4:2 5:2 
-11.08393056333632 0 0 1:2 2:3 3:1 4:2 5:1 
-99.33410264263871 0 0 1:2 2:3 3:1 4:2 5:1 
-1.000335274250092 0 0 1:2 2:3 3:1 4:2 5:0 
-94.71351745195601 0 0 1:2 2:3 3:1 4:2 5:0 
-100 0 0 1:2 2:3 3:2 4:1 5:2 
-8.061253459723797 0 0 1:2 2:3 3:2 4:1 5:1 
-99.71545102478652 0 0 1:2 2:3 3:2 4:1 5:1 
-95.22042267149807 0 0 1:2 2:3 3:2 4:1 5:0 
-0.4637942144429366 0 0 1:2 2:3 3:2 4:1 5:0 
-100 0 0 1:2 2:3 3:2 4:2 5:2 
-0.711343648544939 0 0 1:2 2:3 3:2 4:2 5:1 
-93.73005625102719 0 0 1:2 2:3 3:2 4:2 5:1 
-5.723421447285104 0 0 1:2 2:3 3:2 4:2 5:0 
-97.56415233556829 0 0 1:2 2:3 3:2 4:2 5:0 
-100 0 0 1:2 2:3 3:3 4:1 5:2 
-0.2943484347622473 0 0 1:2 2:3 3:3 4:1 5:1 
-96.82571422024712 0 0 1:2 2:3 3:3 4:1 5:1 
-99.76468721100845 0 0 1:2 2:3 3:3 4:1 5:0 
-3.502698722853804 0.0233215405158165 0 1:2 2:3 3:3 4:1 5:0 
-100 0 0 1:2 2:3 3:3 4:2 5:2 
-99.68471026113464 0 0 1:2 2:3 3:3 4:2 5:1 
-3.282846194318439 0 0 1:2 2:3 3:3 4:2 5:1 
-1.24546116165363 0 0 1:2 2:3 3:3 4:2 5:0 
-97.95633143519751 0 0 1:2 2:3 3:3 4:2 5:0 
-100 0 0 1:2 2:0 3:0 4:1 5:2 
-100 0 0 1:2 2:0 3:0 4:1 5:1 
-3.234059708823694 0 1.269617053610075 1:2 2:0 3:0 4:1 5:0 
-99.95465841555506 0.675573965701065 0 1:2 2:0 3:0 4:1 5:0 
-100 0 0 1:2 2:0 3:0 4:2 5:1 
-7.033056469018255 0.2470434778965473 0.9754403657075137 1:2 2:0 3:0 4:2 5:0 
-100 0 0 1:2 2:0 3:0 4:2 5:0 
-100 0 0 1:2 2:0 3:1 4:1 5:2 
-100 0 0 1:2 2:0 3:1 4:1 5:1 
-100 0 0.1557578905190269 1:2 2:0 3:1 4:1 5:0 
-11.44450043979906 0 0 1:2 2:0 3:1 4:1 5:0 
-100 0 0 1:2 2:0 3:1 4:2 5:2 
-28.23657687830506 0 0.934622467879915 1:2 2:0 3:1 4:2 5:1 
-100 0 0.1307664282518551 1:2 2:0 3:1 4:2 5:1 
-0 0.05199696019409512 0.07856784211128916 1:2 2:0 3:1 4:2 5:0 
-95.38495051652517 0.792214735226499 0 1:2 2:0 3:1 4:2 5:0 
-100 0 0 1:2 2:0 3:2 4:1 5:2 
-22.11403693636235 0 0.3206898612855958 1:2 2:0 3:2 4:1 5:1 
-100 0 0 1:2 2:0 3:2 4:1 5:1 
-12.44451913191064 0.03939060953246615 0.3306006120996576 1:2 2:0 3:2 4:1 5:0 
-82.68788329265904 0.2181341588285748 0 1:2 2:0 3:2 4:1 5:0 
-100 0 0 1:2 2:0 3:2 4:2 5:2 
-0 0.4993081316862933 0.09801472958680232 1:2 2:0 3:2 4:2 5:1 
-94.15453190877496 0.4096947925822985 0 1:2 2:0 3:2 4:2 5:1 
-4.521886213361463 0 0 1:2 2:0 3:2 4:2 5:0 
-99.92547425547764 0 0.02953955702738912 1:2 2:0 3:2 4:2 5:0 
-100 0 0 1:2 2:0 3:3 4:1 5:2 
-87.39333757285675 0.05084944153767729 0.7010271480893466 1:2 2:0 3:3 4:1 5:1 
-10.71340477161096 0.3854839790119574 0 1:2 2:0 3:3 4:1 5:1 
-7.809292850967063 0.297653520033785 0.6652608671904633 1:2 2:0 3:3 4:1 5:0 
-96.60175403386347 0 0 1:2 2:0 3:3 4:1 5:0 
-100 0 0 1:2 2:0 3:3 4:2 5:2 
-6.094492214203258 0 0 1:2 2:0 3:3 4:2 5:1 
-100 0 0.6951689084908398 1:2 2:0 3:3 4:2 5:1 
-1.312632447094933 0 0.2404336831913985 1:2 2:0 3:3 4:2 5:0 
-98.22373193070185 0.3442906579885258 0.6110860297790832 1:2 2:0 3:3 4:2 5:0 
-99.9985100735085 0 0 1:2 2:2 3:0 4:1 5:2 
-7.316640839357567 0 0 1:2 2:2 3:0 4:1 5:2 
-0.002856366020549299 0 0 1:2 2:2 3:0 4:1 5:1 
-94.34846086423794 0 0 1:2 2:2 3:0 4:1 5:1 
-100 100 2.936245505459426 1:2 2:2 3:0 4:1 5:0 
-15.023574350089 0 0 1:2 2:2 3:0 4:2 5:1 
-99.99932416784597 0 0 1:2 2:2 3:0 4:2 5:1 
-100 100 2.299387591197778 1:2 2:2 3:0 4:2 5:0 
-87.86407063105355 0 0 1:2 2:2 3:1 4:1 5:2 
-20.11636005838207 0 0 1:2 2:2 3:1 4:1 5:1 
-100 0 0 1:2 2:2 3:1 4:1 5:1 
-100 100 0.4004626907748451 1:2 2:2 3:1 4:1 5:0 
-10.56009836577382 0 0 1:2 2:2 3:1 4:2 5:2 
-100 0 0 1:2 2:2 3:1 4:2 5:2 
-91.96115911187226 100 2.524429880204591 1:2 2:2 3:1 4:2 5:1 
-100 100 0.08202227637732722 1:2 2:2 3:1 4:2 5:0 
-96.06641792481072 0 0 1:2 2:2 3:2 4:1 5:2 
-9.788853175900504 0 0 1:2 2:2 3:2 4:1 5:2 
-100 100 0.8066451889020874 1:2 2:2 3:2 4:1 5:1 
-100 100 0.6834246354270133 1:2 2:2 3:2 4:1 5:0 
-18.75303652461984 0 0 1:2 2:2 3:2 4:2 5:2 
-81.897579745515 0 0 1:2 2:2 3:2 4:2 5:2 
-100 100 0.09059999987078168 1:2 2:2 3:2 4:2 5:1 
-100 100 0.2258949680248568 1:2 2:2 3:2 4:2 5:0 
-4.046958229125872 0.005489958195079346 0 1:2 2:2 3:3 4:1 5:2 
-99.78634992023713 0 0 1:2 2:2 3:3 4:1 5:2 
-100 100 1.590628224352954 1:2 2:2 3:3 4:1 5:1 
-100 100 1.594035350086207 1:2 2:2 3:3 4:1 5:0 
-10.26445214656778 0 0 1:2 2:2 3:3 4:2 5:2 
-93.8154111584806 0 0 1:2 2:2 3:3 4:2 5:2 
-100 100 1.698419771790674 1:2 2:2 3:3 4:2 5:1 
-100 100 1.900691226863012 1:2 2:2 3:3 4:2 5:0 
-100 0 100 1:2 2:1 3:0 4:1 5:2 
-100 0 100 1:2 2:1 3:0 4:1 5:1 
-100 2.310208460330722 100 1:2 2:1 3:0 4:2 5:1 
-100 0 100 1:2 2:1 3:1 4:1 5:2 
-100 3.954415721321042 100 1:2 2:1 3:1 4:1 5:1 
-100 0 100 1:2 2:1 3:1 4:2 5:2 
-100 0 100 1:2 2:1 3:2 4:1 5:2 
-100 0.9119082890423955 100 1:2 2:1 3:2 4:2 5:2 
-100 0.4237140293368765 100 1:2 2:1 3:3 4:1 5:2 
-100 0 100 1:2 2:1 3:3 4:2 5:2 
-100 0 0 1:1 2:3 3:0 4:1 5:2 
-100 0 0 1:1 2:3 3:0 4:1 5:1 
-4.152812891973788 0.6214993029361209 0.307648219944066 1:1 2:3 3:0 4:1 5:0 
-98.56426392583407 0 0 1:1 2:3 3:0 4:1 5:0 
-100 0 0 1:1 2:3 3:0 4:2 5:1 
-100 0.2799892965170751 0.230112748617561 1:1 2:3 3:0 4:2 5:0 
-4.833409631934507 0 0 1:1 2:3 3:0 4:2 5:0 
-100 0 0 1:1 2:3 3:1 4:1 5:2 
-100 0 0 1:1 2:3 3:1 4:1 5:1 
-100 0 0 1:1 2:3 3:1 4:1 5:0 
-5.65514025629218 0 0.0435528683327628 1:1 2:3 3:1 4:1 5:0 
-100 0 0 1:1 2:3 3:1 4:2 5:2 
-13.1229986566081 0 0.2306058956251419 1:1 2:3 3:1 4:2 5:1 
-100 0 0.007427082187730734 1:1 2:3 3:1 4:2 5:1 
-12.67007422094391 0.5061450091047655 0.03148254390175514 1:1 2:3 3:1 4:2 5:0 
-83.71843563813987 0.007310270166356242 0 1:1 2:3 3:1 4:2 5:0 
-100 0 0 1:1 2:3 3:2 4:1 5:2 
-100 0 0 1:1 2:3 3:2 4:1 5:1 
-10.22704154974177 0 0.07863203908756342 1:1 2:3 3:2 4:1 5:1 
-93.4597118848684 0.2675853001869519 0.07252058701971892 1:1 2:3 3:2 4:1 5:0 
-3.926051711246572 0.01118918059581597 0 1:1 2:3 3:2 4:1 5:0 
-100 0 0 1:1 2:3 3:2 4:2 5:2 
-95.28870014330627 0 0 1:1 2:3 3:2 4:2 5:1 
-0 0.6500262390449888 0.06338788572890247 1:1 2:3 3:2 4:2 5:1 
-3.45169828582309 0 0 1:1 2:3 3:2 4:2 5:0 
-99.18084334339149 0 0 1:1 2:3 3:2 4:2 5:0 
-100 0 0 1:1 2:3 3:3 4:1 5:2 
-99.3525730353488 0.4092386812948343 0.07932681315883001 1:1 2:3 3:3 4:1 5:1 
-0.494573255113949 0 0.09388856561064828 1:1 2:3 3:3 4:1 5:1 
-2.347980126267731 0.2280296622615257 0 1:1 2:3 3:3 4:1 5:0 
-99.67674950006371 0 0.1572604736526107 1:1 2:3 3:3 4:1 5:0 
-100 0 0 1:1 2:3 3:3 4:2 5:2 
-4.89995453272548 0 0 1:1 2:3 3:3 4:2 5:1 
-100 0.01189929644068883 0.141004718772391 1:1 2:3 3:3 4:2 5:1 
-96.59336498155191 0.247035679885788 0.2110894655579738 1:1 2:3 3:3 4:2 5:0 
-3.158234933639737 0.08559851549603086 0 1:1 2:3 3:3 4:2 5:0 
-97.84569091867685 0 0 1:1 2:0 3:0 4:1 5:2 
-12.80665805224502 0 0 1:1 2:0 3:0 4:1 5:2 
-84.72979152652097 0 0 1:1 2:0 3:0 4:1 5:1 
-3.988926174389026 0 0 1:1 2:0 3:0 4:1 5:1 
-98.94242297642198 100 0.1034093938852024 1:1 2:0 3:0 4:1 5:0 
-17.60815165348573 0 0 1:1 2:0 3:0 4:2 5:1 
-100 0 0 1:1 2:0 3:0 4:2 5:1 
-96.61452785584386 100 0.08249666218751181 1:1 2:0 3:0 4:2 5:0 
-83.67449199322628 0 0 1:1 2:0 3:1 4:1 5:2 
-100 0 0 1:1 2:0 3:1 4:1 5:1 
-28.29278991415293 0 0 1:1 2:0 3:1 4:1 5:1 
-96.75546086078029 100 0 1:1 2:0 3:1 4:1 5:0 
-100 0 0 1:1 2:0 3:1 4:2 5:2 
-13.44608908366487 0 0 1:1 2:0 3:1 4:2 5:2 
-77.80093855008755 100 0.03512177587971867 1:1 2:0 3:1 4:2 5:1 
-100 100 0.03701617137848166 1:1 2:0 3:1 4:2 5:0 
-9.475350767380061 0 0 1:1 2:0 3:2 4:1 5:2 
-100 0 0 1:1 2:0 3:2 4:1 5:2 
-86.43034012878149 100 0 1:1 2:0 3:2 4:1 5:1 
-100 100 0.01582056279567469 1:1 2:0 3:2 4:1 5:0 
-93.46810730966209 0 0 1:1 2:0 3:2 4:2 5:2 
-7.456467439837962 0 0 1:1 2:0 3:2 4:2 5:2 
-100 100 0.05184595416807927 1:1 2:0 3:2 4:2 5:1 
-100 100 0 1:1 2:0 3:2 4:2 5:0 
-97.99717485856915 0 0 1:1 2:0 3:3 4:1 5:2 
-5.467064188637297 0 0 1:1 2:0 3:3 4:1 5:2 
-100 100 0.06653982957076574 1:1 2:0 3:3 4:1 5:1 
-100 100 0.070336563784623 1:1 2:0 3:3 4:1 5:0 
-2.971692804516615 0 0 1:1 2:0 3:3 4:2 5:2 
-100 0 0 1:1 2:0 3:3 4:2 5:2 
-99.25355561262239 100 0.04596587452589546 1:1 2:0 3:3 4:2 5:1 
-100 100 0.06871073592058585 1:1 2:0 3:3 4:2 5:0 
-100 0 100 1:1 2:2 3:0 4:1 5:2 
-100 0 100 1:1 2:2 3:0 4:1 5:1 
-100 2.308366943512512 100 1:1 2:2 3:0 4:2 5:1 
-100 0 100 1:1 2:2 3:1 4:1 5:2 
-100 3.954732049644634 100 1:1 2:2 3:1 4:1 5:1 
-100 0 100 1:1 2:2 3:1 4:2 5:2 
-100 0 100 1:1 2:2 3:2 4:1 5:2 
-100 0.9123315963012927 100 1:1 2:2 3:2 4:2 5:2 
-100 0.4220944354453706 100 1:1 2:2 3:3 4:1 5:2 
-100 0 100 1:1 2:2 3:3 4:2 5:2 
-100 0 100 1:1 2:1 3:0 4:1 5:2 
-100 0 100 1:1 2:1 3:0 4:1 5:1 
-100 0.6173052271498439 100 1:1 2:1 3:0 4:2 5:1 
-100 0 100 1:1 2:1 3:1 4:1 5:2 
-100 1.123911364149712 100 1:1 2:1 3:1 4:1 5:1 
-100 0 100 1:1 2:1 3:1 4:2 5:2 
-100 0 100 1:1 2:1 3:2 4:1 5:2 
-100 0.4182913835146839 100 1:1 2:1 3:2 4:2 5:2 
-100 0.1487228386742145 100 1:1 2:1 3:3 4:1 5:2 
-100 0 100 1:1 2:1 3:3 4:2 5:2 
-100 -100 0.9455739323330409 1:2 2:2 3:0 4:1 5:0 
-100 -100 0.5711973208076211 1:2 2:2 3:0 4:2 5:0 
-100 -100 0.1166108944706429 1:2 2:2 3:1 4:1 5:0 
-100 -100 2.209274420698074 1:2 2:2 3:1 4:2 5:1 
-100 -99.13995540659059 0 1:2 2:2 3:1 4:2 5:0 
-100 -100 1.040634848343398 1:2 2:2 3:2 4:1 5:1 
-100 -100 0 1:2 2:2 3:2 4:1 5:0 
-100 -99.26111360805679 0 1:2 2:2 3:2 4:2 5:1 
-100 -100 0 1:2 2:2 3:2 4:2 5:0 
-100 -100 0.6131496231027954 1:2 2:2 3:3 4:1 5:1 
-100 -100 0 1:2 2:2 3:3 4:1 5:0 
-100 -100 0.7865630062358998 1:2 2:2 3:3 4:2 5:1 
-100 -100 0 1:2 2:2 3:3 4:2 5:0 
-100 -2.043019026083705 100 1:2 2:1 3:0 4:1 5:0 
-100 -1.795642303406806 100 1:2 2:1 3:0 4:2 5:0 
-100 -1.428488459372169 100 1:2 2:1 3:1 4:1 5:0 
-100 -4.585970872827541 100 1:2 2:1 3:1 4:2 5:1 
-100 -0 100 1:2 2:1 3:1 4:2 5:0 
-100 -2.842372874474515 100 1:2 2:1 3:2 4:1 5:1 
-100 -0 100 1:2 2:1 3:2 4:1 5:0 
-100 -0 100 1:2 2:1 3:2 4:2 5:1 
-100 -0 100 1:2 2:1 3:2 4:2 5:0 
-100 -0.2226267873256177 100 1:2 2:1 3:3 4:1 5:1 
-100 -0.6727554409797321 100 1:2 2:1 3:3 4:1 5:0 
-100 -1.21347141638767 100 1:2 2:1 3:3 4:2 5:1 
-100 -0.9233500401751217 100 1:2 2:1 3:3 4:2 5:0 
-100 -100 0.6544650238294223 1:1 2:0 3:0 4:1 5:0 
-100 -100 0.4600873060838506 1:1 2:0 3:0 4:2 5:0 
-100 -100 0.1384615666397462 1:1 2:0 3:1 4:1 5:0 
-100 -100 1.254122943927247 1:1 2:0 3:1 4:2 5:1 
-100 -100 0 1:1 2:0 3:1 4:2 5:0 
-100 -100 0.5750947816237525 1:1 2:0 3:2 4:1 5:1 
-100 -100 0 1:1 2:0 3:2 4:1 5:0 
-100 -100 0 1:1 2:0 3:2 4:2 5:1 
-100 -100 0 1:1 2:0 3:2 4:2 5:0 
-100 -100 0.450861203353461 1:1 2:0 3:3 4:1 5:1 
-100 -100 0.07594193343882409 1:1 2:0 3:3 4:1 5:0 
-100 -100 0.5551602817681849 1:1 2:0 3:3 4:2 5:1 
-100 -100 0.08361744215982961 1:1 2:0 3:3 4:2 5:0 
-100 -2.034885006069176 100 1:1 2:2 3:0 4:1 5:0 
-100 -1.800301899215476 100 1:1 2:2 3:0 4:2 5:0 
-100 -1.430862625445219 100 1:1 2:2 3:1 4:1 5:0 
-100 -4.583554187179475 100 1:1 2:2 3:1 4:2 5:1 
-100 -0 100 1:1 2:2 3:1 4:2 5:0 
-100 -2.843195517069042 100 1:1 2:2 3:2 4:1 5:1 
-100 -0 100 1:1 2:2 3:2 4:1 5:0 
-100 -0 100 1:1 2:2 3:2 4:2 5:1 
-100 -0 100 1:1 2:2 3:2 4:2 5:0 
-100 -0.2121041616255594 100 1:1 2:2 3:3 4:1 5:1 
-100 -0.686053162835953 100 1:1 2:2 3:3 4:1 5:0 
-100 -1.222539606087803 100 1:1 2:2 3:3 4:2 5:1 
-100 -0.9090903001696102 100 1:1 2:2 3:3 4:2 5:0 
-100 -0.5950723309171201 100 1:1 2:1 3:0 4:1 5:0 
-100 -0.128397412128322 100 1:1 2:1 3:0 4:2 5:0 
-100 -0.08631876556776764 100 1:1 2:1 3:1 4:1 5:0 
-100 -0.967740107408126 100 1:1 2:1 3:1 4:2 5:1 
-100 -0 100 1:1 2:1 3:1 4:2 5:0 
-100 -0.6308264996371789 100 1:1 2:1 3:2 4:1 5:1 
-100 -0 100 1:1 2:1 3:2 4:1 5:0 
-100 -0 100 1:1 2:1 3:2 4:2 5:1 
-100 -0 100 1:1 2:1 3:2 4:2 5:0 
-100 -0.05606072289177139 100 1:1 2:1 3:3 4:1 5:1 
-100 -0.1347376778352953 100 1:1 2:1 3:3 4:1 5:0 
-100 -0.1467628962033376 100 1:1 2:1 3:3 4:2 5:1 
-100 -0.01613685042245228 100 1:1 2:1 3:3 4:2 5:0 
-100 -100 -0 1:2 2:1 3:0 4:1 5:2 
-100 -100 -0 1:2 2:1 3:0 4:1 5:1 
-100 -3.115282890471275 -100 1:2 2:1 3:0 4:1 5:0 
-100 -100 -1.312319582853647 1:2 2:1 3:0 4:2 5:1 
-100 -2.485683680937423 -100 1:2 2:1 3:0 4:2 5:0 
-100 -100 -0 1:2 2:1 3:1 4:1 5:2 
-100 -100 -1.559483189740443 1:2 2:1 3:1 4:1 5:1 
-100 -0.5109120586600794 -100 1:2 2:1 3:1 4:1 5:0 
-100 -100 -0.3414760147614878 1:2 2:1 3:1 4:2 5:2 
-100 -2.761686831347019 -100 1:2 2:1 3:1 4:2 5:1 
-100 -0 -100 1:2 2:1 3:1 4:2 5:0 
-100 -100 -0 1:2 2:1 3:2 4:1 5:2 
-100 -0.943428936792464 -100 1:2 2:1 3:2 4:1 5:1 
-100 -0.6335269532692227 -100 1:2 2:1 3:2 4:1 5:0 
-100 -100 -0.4755829441594225 1:2 2:1 3:2 4:2 5:2 
-100 -0 -100 1:2 2:1 3:2 4:2 5:1 
-100 -0.3547600558617001 -100 1:2 2:1 3:2 4:2 5:0 
-100 -100 -0.7973787372439111 1:2 2:1 3:3 4:1 5:2 
-100 -1.659858582212109 -100 1:2 2:1 3:3 4:1 5:1 
-100 -1.755621412498593 -100 1:2 2:1 3:3 4:1 5:0 
-100 -100 -0.5233193780979667 1:2 2:1 3:3 4:2 5:2 
-100 -1.866826869534304 -100 1:2 2:1 3:3 4:2 5:1 
-100 -1.975676325290762 -100 1:2 2:1 3:3 4:2 5:0 
-100 -100 -0.1385800430711327 1:1 2:2 3:0 4:1 5:2 
-100 -100 -0 1:1 2:2 3:0 4:1 5:1 
-100 -3.136508757587157 -100 1:1 2:2 3:0 4:1 5:0 
-100 -100 -0.9538856504538357 1:1 2:2 3:0 4:2 5:1 
-100 -2.48026884654609 -100 1:1 2:2 3:0 4:2 5:0 
-100 -100 -0 1:1 2:2 3:1 4:1 5:2 
-100 -100 -1.087124233789313 1:1 2:2 3:1 4:1 5:1 
-100 -0.4726382919030133 -100 1:1 2:2 3:1 4:1 5:0 
-100 -100 -0.3124189409284768 1:1 2:2 3:1 4:2 5:2 
-100 -2.775327194299317 -100 1:1 2:2 3:1 4:2 5:1 
-100 -0 -100 1:1 2:2 3:1 4:2 5:0 
-100 -100 -0 1:1 2:2 3:2 4:1 5:2 
-100 -0.9241274302976168 -100 1:1 2:2 3:2 4:1 5:1 
-100 -0.6899496687088407 -100 1:1 2:2 3:2 4:1 5:0 
-100 -100 -0.349788257838965 1:1 2:2 3:2 4:2 5:2 
-100 -0 -100 1:1 2:2 3:2 4:2 5:1 
-100 -0.3341993215927443 -100 1:1 2:2 3:2 4:2 5:0 
-100 -100 -0.6504924658017093 1:1 2:2 3:3 4:1 5:2 
-100 -1.677452881226176 -100 1:1 2:2 3:3 4:1 5:1 
-100 -1.716563953121971 -100 1:1 2:2 3:3 4:1 5:0 
-100 -100 -0.4387513697360196 1:1 2:2 3:3 4:2 5:2 
-100 -1.861411700780061 -100 1:1 2:2 3:3 4:2 5:1 
-100 -1.994853473923387 -100 1:1 2:2 3:3 4:2 5:0 
-100 -100 -0.01346416780277845 1:1 2:1 3:0 4:1 5:2 
-100 -100 -0.06389439432221981 1:1 2:1 3:0 4:1 5:1 
-100 -0 -100 1:1 2:1 3:0 4:1 5:0 
-100 -100 -0.4057145496721872 1:1 2:1 3:0 4:2 5:1 
-100 -0 -100 1:1 2:1 3:0 4:2 5:0 
-100 -100 -0 1:1 2:1 3:1 4:1 5:2 
-100 -99.82855095257746 -0.4080224057289393 1:1 2:1 3:1 4:1 5:1 
-100 -0 -100 1:1 2:1 3:1 4:1 5:0 
-100 -100 -0.06913752872000045 1:1 2:1 3:1 4:2 5:2 
-100 -0 -100 1:1 2:1 3:1 4:2 5:1 
-100 -0 -100 1:1 2:1 3:1 4:2 5:0 
-100 -100 -0 1:1 2:1 3:2 4:1 5:2 
-100 -0 -100 1:1 2:1 3:2 4:1 5:1 
-100 -0 -100 1:1 2:1 3:2 4:1 5:0 
-100 -100 -0.1057878345813673 1:1 2:1 3:2 4:2 5:2 
-100 -0 -100 1:1 2:1 3:2 4:2 5:1 
-100 -0 -100 1:1 2:1 3:2 4:2 5:0 
-100 -100 -0.2859372840623836 1:1 2:1 3:3 4:1 5:2 
-100 -0 -100 1:1 2:1 3:3 4:1 5:1 
-100 -0 -100 1:1 2:1 3:3 4:1 5:0 
-100 -100 -0.2382575554495869 1:1 2:1 3:3 4:2 5:2 
-100 -0 -100 1:1 2:1 3:3 4:2 5:1 
-100 -0 -100 1:1 2:1 3:3 4:2 5:0 
